<?xml version="1.0"?>
<opencv_storage>
<cascade>
  <stageType>BOOST</stageType>
  <featureType>HAAR</featureType>
  <height>24</height>
  <width>24</width>
  <stageParams>
    <boostType>GAB</boostType>
    <minHitRate>9.9900001287460327e-01</minHitRate>
    <maxFalseAlarm>4.1999998688697815e-01</maxFalseAlarm>
    <weightTrimRate>9.4999999999999996e-01</weightTrimRate>
    <maxDepth>1</maxDepth>
    <maxWeakCount>100</maxWeakCount></stageParams>
  <featureParams>
    <maxCatCount>0</maxCatCount>
    <featSize>1</featSize>
    <mode>BASIC</mode></featureParams>
  <stageNum>8</stageNum>
  <stages>
    <!-- stage 0 -->
    <_>
      <maxWeakCount>2</maxWeakCount>
      <stageThreshold>-3.5434970259666443e-01</stageThreshold>
      <weakClassifiers>
        <_>
          <internalNodes>
            0 -1 23 -2.4345485866069794e-01</internalNodes>
          <leafValues>
            8.7999999523162842e-01 -9.7600001096725464e-01</leafValues></_>
        <_>
          <internalNodes>
            0 -1 0 -2.9922258853912354e-01</internalNodes>
          <leafValues>
            6.2165027856826782e-01 -1.</leafValues></_></weakClassifiers></_>
    <!-- stage 1 -->
    <_>
      <maxWeakCount>2</maxWeakCount>
      <stageThreshold>-3.2419380545616150e-01</stageThreshold>
      <weakClassifiers>
        <_>
          <internalNodes>
            0 -1 8 1.1893630959093571e-02</internalNodes>
          <leafValues>
            -8.7242025136947632e-01 9.7014927864074707e-01</leafValues></_>
        <_>
          <internalNodes>
            0 -1 3 4.4105671346187592e-02</internalNodes>
          <leafValues>
            -9.9580353498458862e-01 5.4822647571563721e-01</leafValues></_></weakClassifiers></_>
    <!-- stage 2 -->
    <_>
      <maxWeakCount>3</maxWeakCount>
      <stageThreshold>-1.3404616117477417e+00</stageThreshold>
      <weakClassifiers>
        <_>
          <internalNodes>
            0 -1 21 1.4672245830297470e-02</internalNodes>
          <leafValues>
            -9.6536797285079956e-01 3.3333334326744080e-01</leafValues></_>
        <_>
          <internalNodes>
            0 -1 14 -1.1964568495750427e-01</internalNodes>
          <leafValues>
            3.7774321436882019e-01 -9.7395759820938110e-01</leafValues></_>
        <_>
          <internalNodes>
            0 -1 5 7.2145266458392143e-03</internalNodes>
          <leafValues>
            -7.5283682346343994e-01 8.3669686317443848e-01</leafValues></_></weakClassifiers></_>
    <!-- stage 3 -->
    <_>
      <maxWeakCount>3</maxWeakCount>
      <stageThreshold>-1.4452635049819946e+00</stageThreshold>
      <weakClassifiers>
        <_>
          <internalNodes>
            0 -1 22 1.2433348223567009e-02</internalNodes>
          <leafValues>
            -9.4029849767684937e-01 3.1297710537910461e-01</leafValues></_>
        <_>
          <internalNodes>
            0 -1 21 1.4688182622194290e-02</internalNodes>
          <leafValues>
            -8.8006103038787842e-01 4.4570726156234741e-01</leafValues></_>
        <_>
          <internalNodes>
            0 -1 4 -2.1005414426326752e-02</internalNodes>
          <leafValues>
            4.4949558377265930e-01 -8.7817960977554321e-01</leafValues></_></weakClassifiers></_>
    <!-- stage 4 -->
    <_>
      <maxWeakCount>3</maxWeakCount>
      <stageThreshold>-1.0660063028335571e+00</stageThreshold>
      <weakClassifiers>
        <_>
          <internalNodes>
            0 -1 17 -1.3797853142023087e-02</internalNodes>
          <leafValues>
            7.3529410362243652e-01 -8.4586465358734131e-01</leafValues></_>
        <_>
          <internalNodes>
            0 -1 9 -1.8550185486674309e-03</internalNodes>
          <leafValues>
            5.5745029449462891e-01 -8.0938315391540527e-01</leafValues></_>
        <_>
          <internalNodes>
            0 -1 2 -5.3344916552305222e-02</internalNodes>
          <leafValues>
            6.1724734306335449e-01 -7.7759194374084473e-01</leafValues></_></weakClassifiers></_>
    <!-- stage 5 -->
    <_>
      <maxWeakCount>5</maxWeakCount>
      <stageThreshold>-1.1490925550460815e+00</stageThreshold>
      <weakClassifiers>
        <_>
          <internalNodes>
            0 -1 13 -2.0377578213810921e-02</internalNodes>
          <leafValues>
            8.1250000000000000e-01 -8.4328359365463257e-01</leafValues></_>
        <_>
          <internalNodes>
            0 -1 20 9.2781763523817062e-03</internalNodes>
          <leafValues>
            -9.2631489038467407e-01 4.2872264981269836e-01</leafValues></_>
        <_>
          <internalNodes>
            0 -1 11 1.0616146959364414e-02</internalNodes>
          <leafValues>
            -5.7316255569458008e-01 9.5742535591125488e-01</leafValues></_>
        <_>
          <internalNodes>
            0 -1 12 -3.2515250146389008e-02</internalNodes>
          <leafValues>
            4.5814561843872070e-01 -9.8289567232131958e-01</leafValues></_>
        <_>
          <internalNodes>
            0 -1 16 -1.8679652363061905e-02</internalNodes>
          <leafValues>
            7.3941910266876221e-01 -6.1951470375061035e-01</leafValues></_></weakClassifiers></_>
    <!-- stage 6 -->
    <_>
      <maxWeakCount>3</maxWeakCount>
      <stageThreshold>-1.0357289314270020e+00</stageThreshold>
      <weakClassifiers>
        <_>
          <internalNodes>
            0 -1 6 -1.1809358373284340e-02</internalNodes>
          <leafValues>
            9.3846154212951660e-01 -8.6168223619461060e-01</leafValues></_>
        <_>
          <internalNodes>
            0 -1 1 -1.5238831751048565e-02</internalNodes>
          <leafValues>
            8.0451220273971558e-01 -6.6358768939971924e-01</leafValues></_>
        <_>
          <internalNodes>
            0 -1 19 1.1958505958318710e-02</internalNodes>
          <leafValues>
            -8.3938848972320557e-01 4.8954105377197266e-01</leafValues></_></weakClassifiers></_>
    <!-- stage 7 -->
    <_>
      <maxWeakCount>4</maxWeakCount>
      <stageThreshold>-1.8581426143646240e+00</stageThreshold>
      <weakClassifiers>
        <_>
          <internalNodes>
            0 -1 10 -2.0158858969807625e-03</internalNodes>
          <leafValues>
            5.1648354530334473e-01 -8.7819254398345947e-01</leafValues></_>
        <_>
          <internalNodes>
            0 -1 18 -8.9584104716777802e-03</internalNodes>
          <leafValues>
            4.6237379312515259e-01 -8.4912532567977905e-01</leafValues></_>
        <_>
          <internalNodes>
            0 -1 15 -3.6785413976758718e-03</internalNodes>
          <leafValues>
            7.5648075342178345e-01 -5.7301723957061768e-01</leafValues></_>
        <_>
          <internalNodes>
            0 -1 7 -1.4513902366161346e-02</internalNodes>
          <leafValues>
            4.4219249486923218e-01 -9.7589153051376343e-01</leafValues></_></weakClassifiers></_></stages>
  <features>
    <_>
      <rects>
        <_>
          0 1 24 18 -1.</_>
        <_>
          0 10 24 9 2.</_></rects>
      <tilted>0</tilted></_>
    <_>
      <rects>
        <_>
          0 13 22 2 -1.</_>
        <_>
          0 14 22 1 2.</_></rects>
      <tilted>0</tilted></_>
    <_>
      <rects>
        <_>
          0 18 14 6 -1.</_>
        <_>
          7 18 7 6 2.</_></rects>
      <tilted>0</tilted></_>
    <_>
      <rects>
        <_>
          3 4 12 14 -1.</_>
        <_>
          3 4 6 7 2.</_>
        <_>
          9 11 6 7 2.</_></rects>
      <tilted>0</tilted></_>
    <_>
      <rects>
        <_>
          3 6 8 18 -1.</_>
        <_>
          3 6 4 9 2.</_>
        <_>
          7 15 4 9 2.</_></rects>
      <tilted>0</tilted></_>
    <_>
      <rects>
        <_>
          4 10 2 6 -1.</_>
        <_>
          5 10 1 6 2.</_></rects>
      <tilted>0</tilted></_>
    <_>
      <rects>
        <_>
          5 12 4 4 -1.</_>
        <_>
          5 12 2 2 2.</_>
        <_>
          7 14 2 2 2.</_></rects>
      <tilted>0</tilted></_>
    <_>
      <rects>
        <_>
          7 9 3 10 -1.</_>
        <_>
          7 14 3 5 2.</_></rects>
      <tilted>0</tilted></_>
    <_>
      <rects>
        <_>
          7 12 2 8 -1.</_>
        <_>
          8 12 1 8 2.</_></rects>
      <tilted>0</tilted></_>
    <_>
      <rects>
        <_>
          8 8 2 2 -1.</_>
        <_>
          8 9 2 1 2.</_></rects>
      <tilted>0</tilted></_>
    <_>
      <rects>
        <_>
          9 12 2 1 -1.</_>
        <_>
          10 12 1 1 2.</_></rects>
      <tilted>0</tilted></_>
    <_>
      <rects>
        <_>
          10 16 2 5 -1.</_>
        <_>
          11 16 1 5 2.</_></rects>
      <tilted>0</tilted></_>
    <_>
      <rects>
        <_>
          11 0 7 12 -1.</_>
        <_>
          11 6 7 6 2.</_></rects>
      <tilted>0</tilted></_>
    <_>
      <rects>
        <_>
          12 9 2 14 -1.</_>
        <_>
          13 9 1 14 2.</_></rects>
      <tilted>0</tilted></_>
    <_>
      <rects>
        <_>
          13 3 10 16 -1.</_>
        <_>
          13 11 10 8 2.</_></rects>
      <tilted>0</tilted></_>
    <_>
      <rects>
        <_>
          13 13 2 4 -1.</_>
        <_>
          13 13 1 2 2.</_>
        <_>
          14 15 1 2 2.</_></rects>
      <tilted>0</tilted></_>
    <_>
      <rects>
        <_>
          14 11 10 4 -1.</_>
        <_>
          14 11 5 2 2.</_>
        <_>
          19 13 5 2 2.</_></rects>
      <tilted>0</tilted></_>
    <_>
      <rects>
        <_>
          15 12 2 8 -1.</_>
        <_>
          16 12 1 8 2.</_></rects>
      <tilted>0</tilted></_>
    <_>
      <rects>
        <_>
          16 12 2 8 -1.</_>
        <_>
          16 16 2 4 2.</_></rects>
      <tilted>0</tilted></_>
    <_>
      <rects>
        <_>
          19 11 4 9 -1.</_>
        <_>
          21 11 2 9 2.</_></rects>
      <tilted>0</tilted></_>
    <_>
      <rects>
        <_>
          20 13 1 10 -1.</_>
        <_>
          20 18 1 5 2.</_></rects>
      <tilted>0</tilted></_>
    <_>
      <rects>
        <_>
          20 13 4 7 -1.</_>
        <_>
          22 13 2 7 2.</_></rects>
      <tilted>0</tilted></_>
    <_>
      <rects>
        <_>
          20 14 1 10 -1.</_>
        <_>
          20 19 1 5 2.</_></rects>
      <tilted>0</tilted></_>
    <_>
      <rects>
        <_>
          21 6 3 18 -1.</_>
        <_>
          21 12 3 6 2.</_></rects>
      <tilted>0</tilted></_></features></cascade>
</opencv_storage>
